svm_type c_svc
kernel_type linear
nr_class 7
total_sv 84
rho 8.34689 8.31933 0.685726 4.06265 2.61277 1.23823 -0.333763 -7.86596 18.7211 2.32253 -5.2318 -11.5709 7.33775 1.79537 -3.60102 3.68167 2.63866 2.31897 -1.51513 -5.34999 -1.45572
label 1 2 3 4 5 6 7
probA -1.34559 -0.581994 -0.695153 -1.39769 -2.37556 -0.483522 -1.73127 -1.05273 -0.372783 -1.96413 -0.897127 -0.211625 -0.773312 -2.14814 -0.319289 -1.28015 -1.90102 -0.970108 -1.7327 -0.53607 -1.53522
probB 0.15027 0.0927281 -0.289335 -0.353405 0.396605 0.101294 0.201037 -0.535006 -0.330855 0.515142 0.100419 -1.15647 -0.0518128 0.75069 0.107869 0.14312 0.77392 0.188364 -0.393557 -0.724377 -1.07175
nr_sv 19 4 23 7 6 3 22
SV
0 0 0 0 0 10 1:173 2:166 3:161 
0 10 0 0 0 10 1:137 2:134 3:135 
0.0001300894557459572 10 6.988304086447749 0 0 10 1:131 2:100 3:99 
0 0 8.369995227412128 0 0 10 1:186 2:166 3:159 
0 10 0 0 0 8.853896196275915 1:114 2:118 3:140 
0 10 0 0 0 9.130848000275751 1:122 2:125 3:129 
0.001073221304197069 10 10 0.0003652968036529683 0.0002313208420078648 10 1:121 2:110 3:106 
0 10 0 0 0 0 1:122 2:125 3:131 
0 0 0 0 0 5.624664034719907 1:175 2:168 3:163 
0 0 0 0 0 10 1:174 2:166 3:162 
0 10 0 0 0 10 1:139 2:134 3:134 
0 10 0 0 0 10 1:134 2:126 3:133 
0 5.682276649520164 0 0 0 0 1:142 2:148 3:143 
0 5.287329296805815 0 0 0 0 1:117 2:124 3:149 
0 10 0 0 0 10 1:118 2:114 3:122 
0 10 0 0 0 10 1:120 2:111 3:120 
0 10 0 0 0 10 1:124 2:124 3:127 
0 10 0 0 0 10 1:120 2:122 3:125 
0 10 0 0 0 10 1:124 2:112 3:114 
-0.001203310759943026 0.0445448094442803 0 0 0 0.1210970764932674 1:91 2:92 3:85 
-0 0 0.001063829787234044 0 0 0 1:97 2:92 3:75 
-0 0 0 0.1701273635877843 0.002464595942594465 0 1:55 2:70 3:67 
-0 0.006132418596515529 0 0 0.00114297995631902 0.01455416601580261 1:64 2:94 3:106 
-10 -0 0 0 0 10 1:129 2:125 3:127 
-10 -0 0 0 0 10 1:150 2:148 3:153 
-10 -0 0 0 0 0 1:112 2:110 3:117 
-10 -0 0 0 0 10 1:145 2:140 3:144 
-10 -0 0.1475429280627422 0 0 10 1:112 2:100 3:101 
-10 -0 0 0 0 10 1:112 2:102 3:103 
-0 -0 0 0 0 10 1:108 2:98 3:99 
-10 -0 0 0 0 0 1:137 2:145 3:155 
-0 -0 0 0 0 10 1:98 2:87 3:90 
-10 -0 0.05725781638600781 0 0 10 1:150 2:145 3:149 
-10 -0.007920024301242485 0 0 0 0 1:148 2:153 3:159 
-10 -0 0 0 0 0 1:113 2:111 3:119 
-10 -0 0 0 0 10 1:111 2:105 3:109 
-0 -0.04275720373955334 0 0.006622516556291385 0.001005530417295124 0 1:79 2:75 3:78 
-0 -0 0 0 0 2.885630611363174 1:86 2:78 3:84 
-0 -0 0 0 0 10 1:111 2:100 3:101 
-10 -0 0 0 0 10 1:112 2:102 3:106 
-10 -0 0 0 0 10 1:114 2:106 3:113 
-0.7521230064070598 -0 0 0 0 10 1:111 2:99 3:101 
-10 -0 0 0 0 10 1:113 2:103 3:110 
-0 -0 0 0 0 10 1:105 2:99 3:105 
-0 -0 0 0 0 10 1:104 2:95 3:95 
-0.2174829399187448 -0 0 0 0 0 1:101 2:102 3:112 
-0 -0 -0 0 0 10 1:129 2:113 3:103 
-2.836574941617046 -0 -0 0 0 1.682541666307358 1:236 2:151 3:141 
-10 -0 -0 0 0 10 1:144 2:131 3:128 
-10 -0 -0.2048007444487498 8.696193818286281e-05 0.0002067183462532299 10 1:124 2:114 3:112 
-0 -0.001063829787234044 -0 0.0002304043104432531 0 0 1:131 2:110 3:95 
-2.521724372242929 -0 -0 0 0 10 1:132 2:123 3:112 
-0 -0 -0 0 0 1.696334506537512 1:135 2:118 3:106 
-0 -0 -0 -0 0.001858252486180571 0 1:37 2:39 3:54 
-0 -0 -0 -0 0 0.01755385921141968 1:20 2:11 3:12 
-0 -0 -0 -0 0.002187383253925607 0 1:15 2:18 3:26 
-0.0003652968036529683 -0.112807038180279 -0.006622516556291385 -0.000317366248626116 0.003356120005162001 0.05426247884698078 1:62 2:73 3:81 
-0 -0 -0 -0 0 0.002594753294943073 1:41 2:37 3:58 
-0 -0.05732032540750516 -0 -0 0 0 1:41 2:55 3:44 
-0 -0 -0 -0 -0.007401755745268176 0.002092653573506424 1:28 2:52 3:66 
-0 -0.003607575898913485 -0.001005530417295124 -0 -0 0.0005461459891967482 1:35 2:77 3:85 
-0.0002313208420078648 -0 -0 -0.0002067183462532299 -0 0 1:35 2:79 3:89 
-10 -0 -10 -10 -0 -0 1:105 2:91 3:84 
-0 -0 -10 -0 -0 -0 1:71 2:59 3:64 
-10 -0 -9.999961407776278 -0 -0 -0 1:255 2:255 3:255 
-10 -0 -10 -0 -0 -0 1:57 2:49 3:62 
-0 -0 -0 -9.185044858032542 -0 -0 1:90 2:68 3:64 
-10 -0 -3.92496712220299 -1.699679633460422 -0 -0 1:255 2:255 3:255 
-6.043649585687162 -0 -0 -0 -0 -0 1:125 2:103 3:106 
-10 -0 -10 -0 -0 -0 1:67 2:59 3:63 
-10 -0.1081549396950741 -10 -0 -0 -0 1:98 2:98 3:96 
-10 -0 -3.606380899751466 -10 -0 -0 1:202 2:196 3:184 
-7.565758645588009 -0 -5.354321181633236 -0 -0 -0 1:110 2:91 3:93 
-0 -0 -10 -0 -0 -0 1:75 2:55 3:60 
-0 -0 -10 -0 -0 -0 1:70 2:56 3:61 
-10 -0 -10 -2.491421482122994 -0 -0 1:255 2:255 3:255 
-10 -0 -10 -0.002730199228820398 -0 -0 1:255 2:255 3:255 
-10 -0.02749630281399586 -10 -0 -0.07441109135334344 -0.002638799562703172 1:56 2:55 3:63 
-10 -0 -10 -0 -0 -0 1:85 2:71 3:76 
-0 -0 -10 -0 -0 -0 1:88 2:73 3:76 
-0 -0 -0 -10 -0 -0 1:95 2:70 3:63 
-10 -0 -0 -0 -0 -0 1:122 2:102 3:104 
-10 -0 -10 -0 -0 -0 1:70 2:65 3:72 
-10 -0 -10 -0 -0 -0 1:71 2:61 3:72 
